12 40
1 0.35553 0.52740 0.05559 0.01995 -0.10502 -0.46535 0.11737 -0.17381 -0.18262 -0.19150 0.23112 0.23604 0.08132 0.08108 0.10463 0.29207 -0.16317 -0.15692 -0.32595 -0.02542 0.18624 0.32254 -0.20196 0.02027 0.35073 -0.22577 0.00166 0.02836 0.10753 -0.11051 -0.16780 -0.01735 0.24401 0.05942 0.39346 0.22236 -0.13310 0.07572 0.05469 0.03642
2 0.42827 0.16050 0.01064 -0.12537 -0.12725 -0.42939 0.07250 -0.14917 -0.13367 -0.17614 0.28660 0.12929 -0.09076 -0.02594 -0.01371 0.23483 -0.08975 0.05951 -0.29963 -0.04250 0.23556 0.31410 -0.19522 0.17329 0.40829 -0.13753 -0.08108 -0.21594 0.25292 -0.21306 -0.15038 -0.09111 0.35080 0.13538 0.29756 0.14889 -0.27254 0.00451 0.00898 -0.03281
3 0.30513 0.20991 -0.11460 -0.08320 0.24783 -0.07767 -0.06807 0.06660 -0.20186 0.18640 -0.21059 0.28532 0.02889 0.15591 0.13864 0.17420 -0.17929 0.09743 0.03845 -0.15612 -0.16845 0.34194 -0.01664 0.10723 -0.10802 0.09719 0.57315 0.14869 -0.26952 0.17995 -0.31249 0.07615 0.11596 0.18073 0.19189 -0.22427 -0.29016 -0.14319 -0.04664 0.25752
4 0.26129 0.57593 -0.02782 0.05686 0.16482 -0.15536 0.01738 -0.02940 -0.22736 0.10152 -0.14319 0.32569 0.16760 0.21409 0.20837 0.23818 -0.21638 -0.15030 -0.08122 -0.07827 -0.12672 0.33959 -0.06704 -0.01901 -0.04515 -0.04441 0.49006 0.34587 -0.30421 0.21067 -0.30679 0.09197 0.07523 0.08238 0.30007 -0.05349 -0.12201 -0.04640 0.00627 0.25087
5 0.36217 -0.26448 -0.17732 -0.24749 0.15172 -0.10685 -0.16896 0.33802 -0.03422 0.05875 -0.23600 0.09175 -0.04174 0.15659 0.03192 0.05769 -0.12600 0.25875 0.21776 -0.17370 -0.03597 0.39223 -0.12803 0.14306 -0.14336 0.11161 0.57440 -0.12929 -0.12008 -0.04574 -0.04342 0.15919 0.08637 0.30083 0.12474 -0.24599 -0.34259 -0.10249 0.00123 0.18444
6 0.36550 -0.24323 -0.11471 -0.32764 0.10806 -0.00606 -0.11462 0.23611 -0.02511 0.10858 -0.23228 0.04165 -0.11508 0.12571 0.05980 0.08299 -0.08522 0.18901 0.13191 -0.11938 -0.04988 0.47255 -0.18677 0.17879 -0.00231 0.17530 0.57177 -0.06834 -0.09746 -0.08699 -0.09093 0.04080 0.09821 0.27512 0.07116 -0.21929 -0.35543 -0.12057 -0.01141 0.20952
7 0.35169 0.53130 0.11956 -0.05563 -0.19927 -0.45700 0.14072 0.01405 -0.02111 -0.20527 0.05431 0.11843 0.11288 0.29312 0.15089 0.16862 -0.23506 -0.20699 -0.16190 0.09060 0.21241 0.41615 -0.31544 -0.00029 0.18904 -0.30092 0.19737 0.20060 -0.05875 -0.12686 -0.08017 0.07523 0.08505 0.12036 0.31545 0.23002 -0.01618 0.07309 0.12031 0.05873
8 -0.08993 -0.33826 -0.17840 0.25515 0.02656 -0.02843 -0.16187 0.08270 -0.00618 -0.10769 0.26987 -0.07322 0.07790 -0.23716 -0.26560 -0.10610 0.10702 0.20186 0.07504 -0.07862 0.05469 -0.47640 0.26014 -0.06152 -0.21318 -0.11611 -0.45884 -0.37320 0.19156 0.05835 0.22670 0.15302 0.12333 -0.06292 0.00870 0.00809 0.07009 0.04408 -0.05078 -0.22941
9 -0.17782 -0.08048 -0.17909 0.40733 0.08631 -0.12900 -0.16133 0.14224 -0.04707 -0.16021 0.18135 0.05024 0.25335 -0.11690 -0.18267 -0.08381 0.02820 0.08992 0.13480 -0.10828 0.02866 -0.50759 0.28833 -0.19199 -0.35885 -0.19363 -0.35974 -0.21435 0.06192 0.16578 0.22726 0.28226 0.00438 -0.10353 0.11382 0.02900 0.19309 0.11592 0.00060 -0.18859
10 -0.51771 -0.00187 0.21913 0.03939 -0.09222 0.42881 0.16472 -0.26944 0.15388 0.12342 -0.04047 -0.21310 -0.10449 -0.12680 0.03034 -0.17856 0.19661 -0.21360 -0.05567 0.19881 -0.10403 -0.31702 0.10585 -0.09482 0.09306 0.14054 -0.34059 0.21504 0.01293 0.02445 0.04774 -0.26011 -0.28220 -0.28211 -0.39869 0.07742 0.31939 0.02291 -0.01941 -0.08369
11 -0.51769 0.01686 0.21990 0.04866 -0.09423 0.42046 0.16423 -0.25654 0.15709 0.11779 -0.04859 -0.21080 -0.08909 -0.11081 0.03537 -0.18080 0.18756 -0.22412 -0.04685 0.20240 -0.10305 -0.31509 0.10225 -0.10505 0.07618 0.12746 -0.32815 0.23147 -0.00198 0.03114 0.05353 -0.24489 -0.29175 -0.28122 -0.39090 0.08177 0.33208 0.02797 -0.01338 -0.08107
12 -0.07063 -0.30765 -0.17274 0.26393 -0.03121 -0.11853 -0.17397 0.17544 0.02654 -0.22764 0.25856 -0.09530 0.15358 -0.17722 -0.25505 -0.08956 0.09717 0.12650 0.09984 -0.07366 0.13515 -0.40144 0.16548 -0.11948 -0.20434 -0.16955 -0.42772 -0.36399 0.22298 -0.01170 0.32520 0.22251 0.08351 -0.04866 0.09323 0.07834 0.12762 0.13076 0.01276 -0.23492
3
